digraph Tree {
node [shape=box, style="filled, rounded", color="black", fontname=helvetica] ;
edge [fontname=helvetica] ;
0 [label="genreEncoded <= 2.5\nentropy = 1.0\nsamples = 635\nvalue = [494.0, 493.5]\nclass = No", fillcolor="#e5813900"] ;
1 [label="genreEncoded <= 1.5\nentropy = 0.574\nsamples = 232\nvalue = [222, 35]\nclass = No", fillcolor="#e58139d7"] ;
0 -> 1 [labeldistance=2.5, labelangle=45, headlabel="True"] ;
2 [label="moodEncoded <= 5.5\nentropy = 0.765\nsamples = 119\nvalue = [110.0, 31.5]\nclass = No", fillcolor="#e58139b6"] ;
1 -> 2 ;
3 [label="moodEncoded <= 2.5\nentropy = 0.63\nsamples = 98\nvalue = [93.0, 17.5]\nclass = No", fillcolor="#e58139cf"] ;
2 -> 3 ;
4 [label="entropy = 0.989\nsamples = 11\nvalue = [9, 7]\nclass = No", fillcolor="#e5813939"] ;
3 -> 4 ;
5 [label="entropy = 0.503\nsamples = 87\nvalue = [84.0, 10.5]\nclass = No", fillcolor="#e58139df"] ;
3 -> 5 ;
6 [label="durationEncoded <= 2.5\nentropy = 0.993\nsamples = 21\nvalue = [17, 14]\nclass = No", fillcolor="#e581392d"] ;
2 -> 6 ;
7 [label="entropy = 0.831\nsamples = 9\nvalue = [5, 14]\nclass = N1 Billboard", fillcolor="#399de5a4"] ;
6 -> 7 ;
8 [label="entropy = 0.0\nsamples = 12\nvalue = [12, 0]\nclass = No", fillcolor="#e58139ff"] ;
6 -> 8 ;
9 [label="edadEncoded <= 1.5\nentropy = 0.196\nsamples = 113\nvalue = [112.0, 3.5]\nclass = No", fillcolor="#e58139f7"] ;
1 -> 9 ;
10 [label="entropy = 0.746\nsamples = 14\nvalue = [13.0, 3.5]\nclass = No", fillcolor="#e58139ba"] ;
9 -> 10 ;
11 [label="entropy = 0.0\nsamples = 99\nvalue = [99, 0]\nclass = No", fillcolor="#e58139ff"] ;
9 -> 11 ;
12 [label="artist_typeEncoded <= 2.5\nentropy = 0.952\nsamples = 403\nvalue = [272.0, 458.5]\nclass = N1 Billboard", fillcolor="#399de568"] ;
0 -> 12 [labeldistance=2.5, labelangle=-45, headlabel="False"] ;
13 [label="edadEncoded <= 2.5\nentropy = 0.871\nsamples = 183\nvalue = [108.0, 262.5]\nclass = N1 Billboard", fillcolor="#399de596"] ;
12 -> 13 ;
14 [label="genreEncoded <= 3.5\nentropy = 0.785\nsamples = 118\nvalue = [61.0, 199.5]\nclass = N1 Billboard", fillcolor="#399de5b1"] ;
13 -> 14 ;
15 [label="entropy = 0.87\nsamples = 78\nvalue = [46, 112]\nclass = N1 Billboard", fillcolor="#399de596"] ;
14 -> 15 ;
16 [label="entropy = 0.601\nsamples = 40\nvalue = [15.0, 87.5]\nclass = N1 Billboard", fillcolor="#399de5d3"] ;
14 -> 16 ;
17 [label="artist_typeEncoded <= 1.5\nentropy = 0.985\nsamples = 65\nvalue = [47, 63]\nclass = N1 Billboard", fillcolor="#399de541"] ;
13 -> 17 ;
18 [label="entropy = 0.924\nsamples = 28\nvalue = [18, 35]\nclass = N1 Billboard", fillcolor="#399de57c"] ;
17 -> 18 ;
19 [label="entropy = 1.0\nsamples = 37\nvalue = [29, 28]\nclass = No", fillcolor="#e5813909"] ;
17 -> 19 ;
20 [label="edadEncoded <= 3.5\nentropy = 0.994\nsamples = 220\nvalue = [164, 196]\nclass = N1 Billboard", fillcolor="#399de52a"] ;
12 -> 20 ;
21 [label="moodEncoded <= 3.5\nentropy = 0.988\nsamples = 208\nvalue = [152, 196]\nclass = N1 Billboard", fillcolor="#399de539"] ;
20 -> 21 ;
22 [label="entropy = 0.977\nsamples = 72\nvalue = [60, 42]\nclass = No", fillcolor="#e581394d"] ;
21 -> 22 ;
23 [label="entropy = 0.954\nsamples = 136\nvalue = [92, 154]\nclass = N1 Billboard", fillcolor="#399de567"] ;
21 -> 23 ;
24 [label="entropy = 0.0\nsamples = 12\nvalue = [12, 0]\nclass = No", fillcolor="#e58139ff"] ;
20 -> 24 ;
}